{
  "featureStats": {
    "mean": [
      0.5040011627634342,
      0.0,
      0.19498116524387016,
      0.0,
      0.0,
      0.5040011627634342,
      0.5040011627634342,
      0.5040011627634342,
      0.0,
      0.0,
      0.0,
      0.0
    ],
    "std": [
      0.15606500228926684,
      1.0,
      0.06785155350859347,
      1.0,
      1.0,
      0.15606500228926684,
      0.15606500228926684,
      0.15606500228926684,
      1.0,
      1.0,
      1.0,
      1.0
    ]
  },
  "pca": {
    "components": [
      [
        0.4901018738746643,
        -1.1102230246251565e-16,
        0.19799131155014038,
        -0.0,
        -0.0,
        0.4901018738746643,
        0.4901018738746643,
        0.4901018738746643,
        -0.0,
        -0.0,
        -0.0,
        -0.0
      ],
      [
        -0.09899565577507019,
        -3.2959746043559335e-17,
        0.9802037477493286,
        0.0,
        0.0,
        -0.09899565577507019,
        -0.09899565577507019,
        -0.09899565577507019,
        -0.0,
        -0.0,
        -0.0,
        -0.0
      ],
      [
        0.1371498703956604,
        0.8092775940895081,
        0.0,
        -1.1102230246251565e-16,
        0.0,
        -0.5075893998146057,
        0.18521976470947266,
        0.18521976470947266,
        -0.0,
        -0.0,
        -0.0,
        -0.0
      ],
      [
        2.842878813768377e-17,
        -1.001543047848846e-18,
        -1.1940765655200862e-32,
        0.026500696316361427,
        0.9996488094329834,
        8.882473205364284e-17,
        5.2395542366852346e-17,
        -1.696490658669014e-16,
        0.0,
        0.0,
        0.0,
        0.0
      ],
      [
        0.0,
        0.0,
        0.0,
        0.0,
        0.0,
        0.0,
        0.0,
        0.0,
        0.0,
        0.0,
        0.0,
        1.0
      ],
      [
        0.0,
        0.0,
        0.0,
        0.0,
        0.0,
        0.0,
        0.0,
        0.0,
        0.0,
        0.0,
        1.0,
        0.0
      ]
    ],
    "explained_variance_ratio": [
      0.8255212903022766,
      0.17447876930236816,
      4.062639675911317e-17,
      6.685182735948351e-35,
      0.0,
      0.0
    ]
  },
  "svm": {
    "classifiers": {
      "Dark / Moody": {
        "w": [
          -2.0778276707913816,
          -1.1817848810663252,
          -2.89941982077272e-08,
          3.361152668610023e-23,
          0.0,
          0.0
        ],
        "b": -4.050430103031012
      },
      "Energetic": {
        "w": [
          -0.06589849484919115,
          1.0745601626651986,
          -1.410835651157489e-09,
          2.8027968267048394e-25,
          0.0,
          0.0
        ],
        "b": -0.5868725529549539
      },
      "Neutral": {
        "w": [
          -0.0964789367090449,
          -1.5216261275159355,
          8.325838289236015e-09,
          -6.616574721709608e-24,
          0.0,
          0.0
        ],
        "b": -1.4469512117245065
      },
      "Positive": {
        "w": [
          8.467034280834396,
          -1.4989262797774878,
          1.8529116752314334e-07,
          1.091691948408901e-22,
          0.0,
          0.0
        ],
        "b": -10.664599212937235
      }
    },
    "classes": [
      "Dark / Moody",
      "Energetic",
      "Neutral",
      "Positive"
    ]
  },
  "accuracy": 97.3,
  "trained_on": 6165,
  "classes": [
    "Dark / Moody",
    "Energetic",
    "Neutral",
    "Positive"
  ],
  "training_mode": "fer_pixel_labeled",
  "n_pca": 6
}